<?xml version="1.0"?>
<opencv_storage>
<cascade>
  <stageType>BOOST</stageType>
  <featureType>LBP</featureType>
  <height>40</height>
  <width>40</width>
  <stageParams>
    <boostType>GAB</boostType>
    <minHitRate>9.9900001287460327e-01</minHitRate>
    <maxFalseAlarm>5.0000000000000000e-01</maxFalseAlarm>
    <weightTrimRate>9.4999999999999996e-01</weightTrimRate>
    <maxDepth>1</maxDepth>
    <maxWeakCount>100</maxWeakCount></stageParams>
  <featureParams>
    <maxCatCount>256</maxCatCount>
    <featSize>1</featSize></featureParams>
  <stageNum>20</stageNum>
  <stages>
    <!-- stage 0 -->
    <_>
      <maxWeakCount>4</maxWeakCount>
      <stageThreshold>-2.0529600977897644e-01</stageThreshold>
      <weakClassifiers>
        <_>
          <internalNodes>
            0 -1 57 1576534015 -7341729 -922233465 -503061561 1535738015
            -1660241464 -150674653 1180696375</internalNodes>
          <leafValues>
            -8.8446217775344849e-01 7.6867032051086426e-01</leafValues></_>
        <_>
          <internalNodes>
            0 -1 29 1534941183 -538750883 901131023 -565061 630436799
            1854908817 1892354267 2142616527</internalNodes>
          <leafValues>
            -8.1062465906143188e-01 7.9321068525314331e-01</leafValues></_>
        <_>
          <internalNodes>
            0 -1 45 1574961143 -176693105 -1778026337 -1597075045
            1099447659 1805140634 1669965139 1160761175</internalNodes>
          <leafValues>
            -8.8291138410568237e-01 7.0900726318359375e-01</leafValues></_>
        <_>
          <internalNodes>
            0 -1 61 2147352063 -174620113 1944682607 -437680109
            -482104321 -484865639 -317325133 1333525339</internalNodes>
          <leafValues>
            -7.9900819063186646e-01 7.8078347444534302e-01</leafValues></_></weakClassifiers></_>
    <!-- stage 1 -->
    <_>
      <maxWeakCount>3</maxWeakCount>
      <stageThreshold>-8.7190699577331543e-01</stageThreshold>
      <weakClassifiers>
        <_>
          <internalNodes>
            0 -1 88 2147483647 2147483647 -1073758209 2112743667
            -1073741825 -645005313 -1 498925567</internalNodes>
          <leafValues>
            -7.8596490621566772e-01 8.2330095767974854e-01</leafValues></_>
        <_>
          <internalNodes>
            0 -1 16 -740336137 -2124705361 873273799 -338716279
            1406917595 -589651829 1653856463 2103777781</internalNodes>
          <leafValues>
            -8.3249330520629883e-01 7.4693387746810913e-01</leafValues></_>
        <_>
          <internalNodes>
            0 -1 53 2111299551 -682257957 -500050029 -470326459
            -276571409 -478115645 -107025305 260041711</internalNodes>
          <leafValues>
            -8.3287596702575684e-01 7.8219580650329590e-01</leafValues></_></weakClassifiers></_>
    <!-- stage 2 -->
    <_>
      <maxWeakCount>3</maxWeakCount>
      <stageThreshold>-8.6530464887619019e-01</stageThreshold>
      <weakClassifiers>
        <_>
          <internalNodes>
            0 -1 87 536870911 1610610911 -1073742337 1073741695
            1870507007 -1082130433 -32929 1576861567</internalNodes>
          <leafValues>
            -7.8238344192504883e-01 8.3545541763305664e-01</leafValues></_>
        <_>
          <internalNodes>
            0 -1 19 2132365823 1829479059 1774541211 1776670359
            2047252735 996672386 2116127115 2137389031</internalNodes>
          <leafValues>
            -8.4936898946762085e-01 7.5458979606628418e-01</leafValues></_>
        <_>
          <internalNodes>
            0 -1 62 2065167359 1607160711 -653160009 -4223657 822655391
            -1014439415 -1539116045 520613411</internalNodes>
          <leafValues>
            -8.3751106262207031e-01 7.7746367454528809e-01</leafValues></_></weakClassifiers></_>
    <!-- stage 3 -->
    <_>
      <maxWeakCount>3</maxWeakCount>
      <stageThreshold>-8.4353637695312500e-01</stageThreshold>
      <weakClassifiers>
        <_>
          <internalNodes>
            0 -1 90 -1 2147483647 -1719154689 1970774965 -95422233
            -580157359 -129 1551695871</internalNodes>
          <leafValues>
            -7.1947193145751953e-01 8.4104627370834351e-01</leafValues></_>
        <_>
          <internalNodes>
            0 -1 63 -9961985 2011942811 -1838024867 -578169589
            -1082273337 -573586469 1409474965 1197470487</internalNodes>
          <leafValues>
            -8.1287068128585815e-01 8.0055689811706543e-01</leafValues></_>
        <_>
          <internalNodes>
            0 -1 5 -183378950 -183109270 1090601228 1967235264
            1076093067 1073910802 25793195 1365747995</internalNodes>
          <leafValues>
            -8.7171190977096558e-01 7.1716254949569702e-01</leafValues></_></weakClassifiers></_>
    <!-- stage 4 -->
    <_>
      <maxWeakCount>3</maxWeakCount>
      <stageThreshold>-9.4917654991149902e-01</stageThreshold>
      <weakClassifiers>
        <_>
          <internalNodes>
            0 -1 86 466081279 1909948831 1595398103 534761987 706462635
            -636770930 -1118122113 230534123</internalNodes>
          <leafValues>
            -8.3773583173751831e-01 7.8878504037857056e-01</leafValues></_>
        <_>
          <internalNodes>
            0 -1 12 -677419521 1909527797 -796798053 760729625
            1273830395 -1077278703 262806511 779583569</internalNodes>
          <leafValues>
            -8.6543095111846924e-01 7.4478334188461304e-01</leafValues></_>
        <_>
          <internalNodes>
            0 -1 31 -246679558 -14688109 1469124695 -1625964157
            -1019041106 -1711079162 1209045931 257947099</internalNodes>
          <leafValues>
            -8.4390556812286377e-01 7.5399029254913330e-01</leafValues></_></weakClassifiers></_>
    <!-- stage 5 -->
    <_>
      <maxWeakCount>4</maxWeakCount>
      <stageThreshold>-2.4556101858615875e-01</stageThreshold>
      <weakClassifiers>
        <_>
          <internalNodes>
            0 -1 78 301855741 127643869 -1785247233 158700963
            -2003008513 -1413839119 684245951 217626794</internalNodes>
          <leafValues>
            -7.9259258508682251e-01 7.8113210201263428e-01</leafValues></_>
        <_>
          <internalNodes>
            0 -1 23 1469021663 -548071535 -1761427457 -1248855079
            -187965793 -108962588 2110383547 2070986413</internalNodes>
          <leafValues>
            -8.1705766916275024e-01 7.1451836824417114e-01</leafValues></_>
        <_>
          <internalNodes>
            0 -1 9 -799154690 -648604583 -738157195 1158746153
            -628584968 -395759603 260752883 1129052054</internalNodes>
          <leafValues>
            -8.3113646507263184e-01 6.8786972761154175e-01</leafValues></_>
        <_>
          <internalNodes>
            0 -1 84 384383195 456257495 624993267 831648025 -2011640097
            -1350546936 58917711 1269524497</internalNodes>
          <leafValues>
            -8.5270380973815918e-01 6.7621952295303345e-01</leafValues></_></weakClassifiers></_>
    <!-- stage 6 -->
    <_>
      <maxWeakCount>5</maxWeakCount>
      <stageThreshold>-9.6446055173873901e-01</stageThreshold>
      <weakClassifiers>
        <_>
          <internalNodes>
            0 -1 20 -536920193 -8421601 1877966783 -336855281 2139699063
            -8421505 1434417015 -8424075</internalNodes>
          <leafValues>
            -6.9018930196762085e-01 7.8606474399566650e-01</leafValues></_>
        <_>
          <internalNodes>
            0 -1 44 -782904321 -108568277 1346343393 -665795417
            -1255062849 -125206518 -637068627 -1610570316</internalNodes>
          <leafValues>
            -7.3040407896041870e-01 6.9762897491455078e-01</leafValues></_>
        <_>
          <internalNodes>
            0 -1 81 462921725 1505690075 -655010945 298038677
            -1467667797 -1093054221 -1712698755 1275761070</internalNodes>
          <leafValues>
            -7.8047698736190796e-01 6.2693899869918823e-01</leafValues></_>
        <_>
          <internalNodes>
            0 -1 66 1060571095 -471217773 -787264009 -1755593935
            247817117 1066128257 390021843 2105487457</internalNodes>
          <leafValues>
            -8.0499792098999023e-01 5.4758369922637939e-01</leafValues></_>
        <_>
          <internalNodes>
            0 -1 76 215057885 152383509 -1677719113 139493748 382598551
            -1986493557 142606999 -896921983</internalNodes>
          <leafValues>
            -7.1838986873626709e-01 6.5844064950942993e-01</leafValues></_></weakClassifiers></_>
    <!-- stage 7 -->
    <_>
      <maxWeakCount>5</maxWeakCount>
      <stageThreshold>-7.1736353635787964e-01</stageThreshold>
      <weakClassifiers>
        <_>
          <internalNodes>
            0 -1 30 2108619514 2143289341 1537177599 -1073876817
            -1077280790 -2830594 360693759 222802943</internalNodes>
          <leafValues>
            -6.8460112810134888e-01 7.2478795051574707e-01</leafValues></_>
        <_>
          <internalNodes>
            0 -1 13 1526922239 -141597491 633409881 -1421512254
            390569963 -661110104 1627717867 225908773</internalNodes>
          <leafValues>
            -7.2242343425750732e-01 6.2329578399658203e-01</leafValues></_>
        <_>
          <internalNodes>
            0 -1 59 -626485334 -417035648 -285294867 -201719636
            -2069963058 1990010 75927712 -1148517760</internalNodes>
          <leafValues>
            -5.8149033784866333e-01 7.9469162225723267e-01</leafValues></_>
        <_>
          <internalNodes>
            0 -1 64 -1775607296 -366978912 1463114800 -232629532
            -1560358358 -1595775148 -1568759096 -1543896903</internalNodes>
          <leafValues>
            -6.4928710460662842e-01 7.3253804445266724e-01</leafValues></_>
        <_>
          <internalNodes>
            0 -1 83 -1823215169 1068696327 655487345 488616031
            -2105441905 -74938234 187777371 1568713566</internalNodes>
          <leafValues>
            -8.0146270990371704e-01 5.9545314311981201e-01</leafValues></_></weakClassifiers></_>
    <!-- stage 8 -->
    <_>
      <maxWeakCount>3</maxWeakCount>
      <stageThreshold>-7.3656111955642700e-01</stageThreshold>
      <weakClassifiers>
        <_>
          <internalNodes>
            0 -1 73 -2080391449 -1358954755 1342177087 11696184
            -1073741826 75497471 805304287 -2001043537</internalNodes>
          <leafValues>
            -8.2711863517761230e-01 8.7920790910720825e-01</leafValues></_>
        <_>
          <internalNodes>
            0 -1 27 -952008184 -786366462 264201 1426128896 -1995927130
            134217731 570460363 -1325252214</internalNodes>
          <leafValues>
            -7.4402409791946411e-01 8.4390580654144287e-01</leafValues></_>
        <_>
          <internalNodes>
            0 -1 18 -1992159145 -1727002543 1073807617 -150986365
            268567314 1572869 -2130706171 -911519731</internalNodes>
          <leafValues>
            -7.5215476751327515e-01 8.3458161354064941e-01</leafValues></_></weakClassifiers></_>
    <!-- stage 9 -->
    <_>
      <maxWeakCount>4</maxWeakCount>
      <stageThreshold>-1.5010352134704590e+00</stageThreshold>
      <weakClassifiers>
        <_>
          <internalNodes>
            0 -1 80 -1073748481 1073741823 1878732063 1073216765
            -1610612805 -1081184119 536866815 536731645</internalNodes>
          <leafValues>
            -7.0705246925354004e-01 7.5549185276031494e-01</leafValues></_>
        <_>
          <internalNodes>
            0 -1 10 -817496339 1561135176 1995203808 -571622401
            -2122269814 134761740 -1902198805 -1087648497</internalNodes>
          <leafValues>
            -6.3288480043411255e-01 7.4021595716476440e-01</leafValues></_>
        <_>
          <internalNodes>
            0 -1 24 -652248065 -737340625 495409145 -1092772915
            1960720126 2086331016 722203375 2135130212</internalNodes>
          <leafValues>
            -8.8557481765747070e-01 5.8922278881072998e-01</leafValues></_>
        <_>
          <internalNodes>
            0 -1 60 538140007 67453993 1342292511 1364035615 268456019
            10626049 285347995 -31495285</internalNodes>
          <leafValues>
            -7.5032085180282593e-01 6.3537520170211792e-01</leafValues></_></weakClassifiers></_>
    <!-- stage 10 -->
    <_>
      <maxWeakCount>5</maxWeakCount>
      <stageThreshold>-5.9037131071090698e-01</stageThreshold>
      <weakClassifiers>
        <_>
          <internalNodes>
            0 -1 74 -1409286145 -1493212161 -1610612833 35848061
            -1348024645 -1409288609 -1342185505 -1908785153</internalNodes>
          <leafValues>
            -6.9707399606704712e-01 7.8999018669128418e-01</leafValues></_>
        <_>
          <internalNodes>
            0 -1 46 -84018996 -771629372 716688860 -1039824433
            -266603562 -2110083116 -1331700257 -1322255393</internalNodes>
          <leafValues>
            -6.0447740554809570e-01 7.8788077831268311e-01</leafValues></_>
        <_>
          <internalNodes>
            0 -1 55 -715660097 -804061175 -2146893813 1950353157
            -2147036085 -922742784 805390530 -1072643903</internalNodes>
          <leafValues>
            -7.1506357192993164e-01 7.0979654788970947e-01</leafValues></_>
        <_>
          <internalNodes>
            0 -1 21 -716768128 2063679498 -1944863805 -1254023166 100814
            277381129 1073973727 -2121563933</internalNodes>
          <leafValues>
            -7.4880701303482056e-01 6.6783899068832397e-01</leafValues></_>
        <_>
          <internalNodes>
            0 -1 22 -135923753 -274137120 -33587977 -1249904641
            100107765 1984739191 343869439 -1614289042</internalNodes>
          <leafValues>
            -6.2596499919891357e-01 7.8269249200820923e-01</leafValues></_></weakClassifiers></_>
    <!-- stage 11 -->
    <_>
      <maxWeakCount>5</maxWeakCount>
      <stageThreshold>-1.0817947387695312e+00</stageThreshold>
      <weakClassifiers>
        <_>
          <internalNodes>
            0 -1 4 -32769 1845460479 -20971777 775913471 75464703 -32769
            1870626815 1297038847</internalNodes>
          <leafValues>
            -7.0676690340042114e-01 7.2659176588058472e-01</leafValues></_>
        <_>
          <internalNodes>
            0 -1 52 -70537729 684843595 201417027 1462231875 -75390277
            176308262 1096546414 1574761163</internalNodes>
          <leafValues>
            -7.8093582391738892e-01 6.0139799118041992e-01</leafValues></_>
        <_>
          <internalNodes>
            0 -1 14 -131999512 -587136896 70815 285296771 -1055665970
            1074798657 -1795111237 1494451227</internalNodes>
          <leafValues>
            -8.2450866699218750e-01 5.9069716930389404e-01</leafValues></_>
        <_>
          <internalNodes>
            0 -1 38 -783954266 286327809 -2125365070 403800064
            -1593734968 960561298 -331111778 1833943435</internalNodes>
          <leafValues>
            -7.5933420658111572e-01 6.1869710683822632e-01</leafValues></_>
        <_>
          <internalNodes>
            0 -1 68 -499004467 -1031794301 -1065305629 806355359
            -2146726613 -2103279410 -1041587317 866380424</internalNodes>
          <leafValues>
            -7.5743615627288818e-01 5.7454508543014526e-01</leafValues></_></weakClassifiers></_>
    <!-- stage 12 -->
    <_>
      <maxWeakCount>6</maxWeakCount>
      <stageThreshold>-1.1472454071044922e+00</stageThreshold>
      <weakClassifiers>
        <_>
          <internalNodes>
            0 -1 6 -16777345 2139062143 -319836369 -546308435 2138582907
            -8421505 1165444469 -41966219</internalNodes>
          <leafValues>
            -6.4579606056213379e-01 7.3102784156799316e-01</leafValues></_>
        <_>
          <internalNodes>
            0 -1 26 -139070123 -711404203 2146434550 -576399565
            799446448 -726856329 1319766270 -134246121</internalNodes>
          <leafValues>
            -5.6269431114196777e-01 7.1976572275161743e-01</leafValues></_>
        <_>
          <internalNodes>
            0 -1 32 -170289219 -32874200 1078708313 -1860071128
            638615985 -1744035119 317359274 -977542921</internalNodes>
          <leafValues>
            -5.7467091083526611e-01 6.9121998548507690e-01</leafValues></_>
        <_>
          <internalNodes>
            0 -1 75 -752994885 -1020178154 -779906287 229372243
            344300441 45139995 1074356909 -1968330627</internalNodes>
          <leafValues>
            -6.5337985754013062e-01 6.2616449594497681e-01</leafValues></_>
        <_>
          <internalNodes>
            0 -1 42 -632108776 1359200257 -1342177200 -786989055
            -267333086 -1333130990 268591464 -746098805</internalNodes>
          <leafValues>
            -5.9241056442260742e-01 6.8692886829376221e-01</leafValues></_>
        <_>
          <internalNodes>
            0 -1 3 2093745807 556426134 -1591704907 -988806391
            -611695518 1892905480 -1056900886 -1250198201</internalNodes>
          <leafValues>
            -6.5210264921188354e-01 6.1581540107727051e-01</leafValues></_></weakClassifiers></_>
    <!-- stage 13 -->
    <_>
      <maxWeakCount>5</maxWeakCount>
      <stageThreshold>-5.8965748548507690e-01</stageThreshold>
      <weakClassifiers>
        <_>
          <internalNodes>
            0 -1 48 532488063 792035193 536698879 1199439853 502628351
            796917631 494796799 -132609</internalNodes>
          <leafValues>
            -6.3738316297531128e-01 6.9577467441558838e-01</leafValues></_>
        <_>
          <internalNodes>
            0 -1 37 -350224597 -1122107635 -1277174017 -67628494
            1583898603 -178389153 810393756 -101715814</internalNodes>
          <leafValues>
            -5.0219035148620605e-01 7.4281018972396851e-01</leafValues></_>
        <_>
          <internalNodes>
            0 -1 79 268402111 1476362047 -16818345 305692239 -1342177281
            -1073741825 -1880106409 -891225093</internalNodes>
          <leafValues>
            -6.0798883438110352e-01 6.3054990768432617e-01</leafValues></_>
        <_>
          <internalNodes>
            0 -1 35 -672689886 1494704662 -251096558 -577548150
            -1064762038 135522507 753819 1278199995</internalNodes>
          <leafValues>
            -7.8621029853820801e-01 5.2286994457244873e-01</leafValues></_>
        <_>
          <internalNodes>
            0 -1 41 -1213596108 -596226554 -9572632 -545826842 2917260
            1214096039 -1905936420 -26543425</internalNodes>
          <leafValues>
            -5.3942418098449707e-01 7.2577810287475586e-01</leafValues></_></weakClassifiers></_>
    <!-- stage 14 -->
    <_>
      <maxWeakCount>5</maxWeakCount>
      <stageThreshold>-7.8395545482635498e-01</stageThreshold>
      <weakClassifiers>
        <_>
          <internalNodes>
            0 -1 85 396752383 823505247 923795771 937416001 -1152812775
            -1442248573 -1112538573 1566489089</internalNodes>
          <leafValues>
            -7.5319147109985352e-01 6.6725665330886841e-01</leafValues></_>
        <_>
          <internalNodes>
            0 -1 56 -176562189 -54984784 -536905886 -2317 -251748881
            -1493500418 216518141 -1616951809</internalNodes>
          <leafValues>
            -5.2108174562454224e-01 7.5832635164260864e-01</leafValues></_>
        <_>
          <internalNodes>
            0 -1 17 251658235 -3 -1627395097 -1114132 -1610614785
            -1342193921 360140903 -545827825</internalNodes>
          <leafValues>
            -5.6712031364440918e-01 6.9339007139205933e-01</leafValues></_>
        <_>
          <internalNodes>
            0 -1 43 870291419 -1158803057 -1739455193 -534785265
            1354989898 -939216869 1254068355 1212932635</internalNodes>
          <leafValues>
            -8.0791461467742920e-01 5.1197439432144165e-01</leafValues></_>
        <_>
          <internalNodes>
            0 -1 15 -744383490 -716898271 -2147481528 -774266880
            -2113887854 184550020 -2013117719 -1953294182</internalNodes>
          <leafValues>
            -6.7456579208374023e-01 6.4824372529983521e-01</leafValues></_></weakClassifiers></_>
    <!-- stage 15 -->
    <_>
      <maxWeakCount>6</maxWeakCount>
      <stageThreshold>-1.0586323738098145e+00</stageThreshold>
      <weakClassifiers>
        <_>
          <internalNodes>
            0 -1 58 -4202497 -2097665 -1 -164430165 -1343225859 -2293889
            -808069645 -666889004</internalNodes>
          <leafValues>
            -5.3177255392074585e-01 7.1656686067581177e-01</leafValues></_>
        <_>
          <internalNodes>
            0 -1 51 -606871041 -2096393517 1234277599 107075763
            1226919949 1781022987 1101803775 1853218495</internalNodes>
          <leafValues>
            -6.3395339250564575e-01 6.0075116157531738e-01</leafValues></_>
        <_>
          <internalNodes>
            0 -1 89 -586686635 1561689625 -851585673 -583139489
            -1791713964 1872590559 286036309 -1087267521</internalNodes>
          <leafValues>
            -5.7857674360275269e-01 6.7257118225097656e-01</leafValues></_>
        <_>
          <internalNodes>
            0 -1 33 -593505059 -1132593167 145293055 1565602107
            -1090523916 1970660949 -151007553 -753157446</internalNodes>
          <leafValues>
            -5.2122300863265991e-01 7.2698330879211426e-01</leafValues></_>
        <_>
          <internalNodes>
            0 -1 8 -809317686 1363492619 67469850 -1794537902
            -1610033010 -1895822846 -1702754149 -821591924</internalNodes>
          <leafValues>
            -6.3424038887023926e-01 5.7513862848281860e-01</leafValues></_>
        <_>
          <internalNodes>
            0 -1 77 2132499421 1368457841 990036889 1075249169 277480088
            -35061631 1620369563 -2092440739</internalNodes>
          <leafValues>
            -6.0294979810714722e-01 6.3541942834854126e-01</leafValues></_></weakClassifiers></_>
    <!-- stage 16 -->
    <_>
      <maxWeakCount>6</maxWeakCount>
      <stageThreshold>-1.4475708007812500e+00</stageThreshold>
      <weakClassifiers>
        <_>
          <internalNodes>
            0 -1 82 2010216319 1977288253 520329403 270017755
            -1474681620 553822356 -2104907178 136500082</internalNodes>
          <leafValues>
            -8.2291668653488159e-01 5.8881580829620361e-01</leafValues></_>
        <_>
          <internalNodes>
            0 -1 11 1955158911 -787661101 -1004498061 -343455039
            1074668811 -1717411293 172040039 -32632335</internalNodes>
          <leafValues>
            -6.8124568462371826e-01 5.9832328557968140e-01</leafValues></_>
        <_>
          <internalNodes>
            0 -1 49 -960023169 -312503977 8587250 771854696 -2137439129
            117465408 982332655 -106313569</internalNodes>
          <leafValues>
            -5.8951687812805176e-01 6.4298385381698608e-01</leafValues></_>
        <_>
          <internalNodes>
            0 -1 40 -269504774 -146855153 -5333249 1933508541 -33747252
            -1023922305 1554783469 -1062318177</internalNodes>
          <leafValues>
            -6.2749326229095459e-01 6.7300772666931152e-01</leafValues></_>
        <_>
          <internalNodes>
            0 -1 2 -806905893 -500174849 -836116483 -1912439344
            1333780303 -513 252493822 -880259171</internalNodes>
          <leafValues>
            -5.5589950084686279e-01 6.7318385839462280e-01</leafValues></_>
        <_>
          <internalNodes>
            0 -1 72 269534848 -2041412827 -1590619584 319340800
            -2088130532 8388610 77758471 -609402495</internalNodes>
          <leafValues>
            -6.8270957469940186e-01 5.4993218183517456e-01</leafValues></_></weakClassifiers></_>
    <!-- stage 17 -->
    <_>
      <maxWeakCount>6</maxWeakCount>
      <stageThreshold>-1.1415940523147583e+00</stageThreshold>
      <weakClassifiers>
        <_>
          <internalNodes>
            0 -1 50 -1083186689 29737487 293807131 764256266 407437319
            209846530 2014253539 1574817929</internalNodes>
          <leafValues>
            -8.3240222930908203e-01 5.6199675798416138e-01</leafValues></_>
        <_>
          <internalNodes>
            0 -1 36 -805335281 1966026303 -1045057927 -210260077
            1337968303 -1123037394 -1502618486 -85537097</internalNodes>
          <leafValues>
            -5.5523437261581421e-01 6.8718850612640381e-01</leafValues></_>
        <_>
          <internalNodes>
            0 -1 28 -269355947 -679977615 -268500996 1471968561
            -16892523 -1614811915 -1896082180 -847515629</internalNodes>
          <leafValues>
            -5.5541568994522095e-01 6.4646244049072266e-01</leafValues></_>
        <_>
          <internalNodes>
            0 -1 65 2057895996 -231723144 2055124862 1916218991
            1048252098 1158838817 -75587894 -88473348</internalNodes>
          <leafValues>
            -5.1249539852142334e-01 7.1718829870223999e-01</leafValues></_>
        <_>
          <internalNodes>
            0 -1 69 -999667266 -84267642 -822626579 -1693972444
            -97710178 -2107097140 -1954612009 -1420088293</internalNodes>
          <leafValues>
            -5.4341572523117065e-01 7.0714157819747925e-01</leafValues></_>
        <_>
          <internalNodes>
            0 -1 47 -1064110610 -790966063 -1844784830 51454041
            -1073446776 1409290262 1451235789 1768638539</internalNodes>
          <leafValues>
            -8.4045273065567017e-01 4.6297031641006470e-01</leafValues></_></weakClassifiers></_>
    <!-- stage 18 -->
    <_>
      <maxWeakCount>5</maxWeakCount>
      <stageThreshold>-7.0650172233581543e-01</stageThreshold>
      <weakClassifiers>
        <_>
          <internalNodes>
            0 -1 54 864015319 -1789181929 -460648359 -789347961
            1671594897 1092714627 -1287027869 1146593635</internalNodes>
          <leafValues>
            -8.1999999284744263e-01 6.0666668415069580e-01</leafValues></_>
        <_>
          <internalNodes>
            0 -1 67 1613155811 -268294253 21759491 -1088810989
            -968527697 -654269819 1624228859 -974787877</internalNodes>
          <leafValues>
            -5.9748494625091553e-01 6.5906000137329102e-01</leafValues></_>
        <_>
          <internalNodes>
            0 -1 1 -550549537 -68264097 -436099131 -14444832 -816844913
            1610569671 122289538 -315666319</internalNodes>
          <leafValues>
            -5.5760973691940308e-01 6.6245961189270020e-01</leafValues></_>
        <_>
          <internalNodes>
            0 -1 70 2103197695 -8423565 2130673534 1916239743 1610022414
            -1086619781 1853816831 -360593</internalNodes>
          <leafValues>
            -5.4884672164916992e-01 6.9207769632339478e-01</leafValues></_>
        <_>
          <internalNodes>
            0 -1 25 -578617364 -45937381 -1186805541 -2129639928
            -1644050417 -217415424 -1466832774 2101562255</internalNodes>
          <leafValues>
            -6.1559498310089111e-01 5.9737032651901245e-01</leafValues></_></weakClassifiers></_>
    <!-- stage 19 -->
    <_>
      <maxWeakCount>6</maxWeakCount>
      <stageThreshold>-1.1937850713729858e+00</stageThreshold>
      <weakClassifiers>
        <_>
          <internalNodes>
            0 -1 39 387829751 -9439259 -281020425 -757924110 -285213953
            -67108865 284669396 -968306444</internalNodes>
          <leafValues>
            -5.7168143987655640e-01 6.9855070114135742e-01</leafValues></_>
        <_>
          <internalNodes>
            0 -1 71 -1282744359 -890562094 1125085189 -1547628181
            -527578385 -2134866537 530281750 -539684379</internalNodes>
          <leafValues>
            -5.6977170705795288e-01 6.3150840997695923e-01</leafValues></_>
        <_>
          <internalNodes>
            0 -1 7 1440166391 1914245255 1905504763 -1889206073
            722108569 1879908909 2064262635 1803256833</internalNodes>
          <leafValues>
            -7.6827359199523926e-01 4.8381850123405457e-01</leafValues></_>
        <_>
          <internalNodes>
            0 -1 34 -276852977 -147865811 1492307188 -613190304
            1201573326 864964495 -1526740933 -1230132209</internalNodes>
          <leafValues>
            -5.9263658523559570e-01 6.6712480783462524e-01</leafValues></_>
        <_>
          <internalNodes>
            0 -1 0 -110915 -285253761 247427070 251736063 2147438591
            -1208002561 1207875583 -1354048069</internalNodes>
          <leafValues>
            -5.8146083354949951e-01 6.3868987560272217e-01</leafValues></_>
        <_>
          <internalNodes>
            0 -1 64 1986693776 -80848480 1194679329 -5878796 -353438752
            -1393399842 -243352852 -633954181</internalNodes>
          <leafValues>
            -5.6333315372467041e-01 6.7787909507751465e-01</leafValues></_></weakClassifiers></_></stages>
  <features>
    <_>
      <rect>
        0 15 4 2</rect></_>
    <_>
      <rect>
        0 16 5 3</rect></_>
    <_>
      <rect>
        0 17 4 3</rect></_>
    <_>
      <rect>
        1 11 4 4</rect></_>
    <_>
      <rect>
        2 18 3 1</rect></_>
    <_>
      <rect>
        3 14 11 4</rect></_>
    <_>
      <rect>
        3 18 5 1</rect></_>
    <_>
      <rect>
        3 20 3 1</rect></_>
    <_>
      <rect>
        4 3 10 6</rect></_>
    <_>
      <rect>
        4 11 10 6</rect></_>
    <_>
      <rect>
        4 15 11 7</rect></_>
    <_>
      <rect>
        4 17 4 2</rect></_>
    <_>
      <rect>
        4 19 3 1</rect></_>
    <_>
      <rect>
        4 19 3 2</rect></_>
    <_>
      <rect>
        5 4 6 7</rect></_>
    <_>
      <rect>
        5 16 10 5</rect></_>
    <_>
      <rect>
        5 19 1 1</rect></_>
    <_>
      <rect>
        5 21 4 2</rect></_>
    <_>
      <rect>
        6 16 4 2</rect></_>
    <_>
      <rect>
        6 18 1 1</rect></_>
    <_>
      <rect>
        6 19 4 1</rect></_>
    <_>
      <rect>
        6 21 8 4</rect></_>
    <_>
      <rect>
        7 17 5 4</rect></_>
    <_>
      <rect>
        7 19 1 1</rect></_>
    <_>
      <rect>
        7 19 2 1</rect></_>
    <_>
      <rect>
        8 3 8 6</rect></_>
    <_>
      <rect>
        8 12 4 6</rect></_>
    <_>
      <rect>
        9 9 7 5</rect></_>
    <_>
      <rect>
        9 11 3 6</rect></_>
    <_>
      <rect>
        9 18 1 1</rect></_>
    <_>
      <rect>
        10 9 8 7</rect></_>
    <_>
      <rect>
        11 11 7 6</rect></_>
    <_>
      <rect>
        11 19 4 3</rect></_>
    <_>
      <rect>
        12 11 3 4</rect></_>
    <_>
      <rect>
        12 20 5 3</rect></_>
    <_>
      <rect>
        13 8 9 4</rect></_>
    <_>
      <rect>
        14 20 4 3</rect></_>
    <_>
      <rect>
        15 12 4 3</rect></_>
    <_>
      <rect>
        15 17 6 6</rect></_>
    <_>
      <rect>
        16 8 3 3</rect></_>
    <_>
      <rect>
        16 20 5 3</rect></_>
    <_>
      <rect>
        17 19 2 1</rect></_>
    <_>
      <rect>
        18 2 7 12</rect></_>
    <_>
      <rect>
        18 7 1 2</rect></_>
    <_>
      <rect>
        18 10 1 3</rect></_>
    <_>
      <rect>
        18 11 1 1</rect></_>
    <_>
      <rect>
        18 13 4 5</rect></_>
    <_>
      <rect>
        18 16 7 5</rect></_>
    <_>
      <rect>
        18 22 1 4</rect></_>
    <_>
      <rect>
        18 24 2 2</rect></_>
    <_>
      <rect>
        18 25 1 2</rect></_>
    <_>
      <rect>
        18 26 2 3</rect></_>
    <_>
      <rect>
        18 27 1 2</rect></_>
    <_>
      <rect>
        19 9 1 1</rect></_>
    <_>
      <rect>
        19 9 1 2</rect></_>
    <_>
      <rect>
        19 9 1 3</rect></_>
    <_>
      <rect>
        19 9 5 5</rect></_>
    <_>
      <rect>
        19 11 1 1</rect></_>
    <_>
      <rect>
        19 13 1 2</rect></_>
    <_>
      <rect>
        19 17 1 1</rect></_>
    <_>
      <rect>
        19 22 1 3</rect></_>
    <_>
      <rect>
        20 8 1 1</rect></_>
    <_>
      <rect>
        20 10 1 1</rect></_>
    <_>
      <rect>
        20 11 1 1</rect></_>
    <_>
      <rect>
        20 18 1 1</rect></_>
    <_>
      <rect>
        20 21 1 1</rect></_>
    <_>
      <rect>
        21 7 2 2</rect></_>
    <_>
      <rect>
        21 14 4 4</rect></_>
    <_>
      <rect>
        21 17 4 3</rect></_>
    <_>
      <rect>
        21 19 1 1</rect></_>
    <_>
      <rect>
        21 22 2 3</rect></_>
    <_>
      <rect>
        22 13 2 2</rect></_>
    <_>
      <rect>
        22 17 1 1</rect></_>
    <_>
      <rect>
        22 18 4 1</rect></_>
    <_>
      <rect>
        22 19 4 1</rect></_>
    <_>
      <rect>
        23 16 4 1</rect></_>
    <_>
      <rect>
        24 18 3 2</rect></_>
    <_>
      <rect>
        24 23 3 2</rect></_>
    <_>
      <rect>
        25 18 3 1</rect></_>
    <_>
      <rect>
        25 18 4 2</rect></_>
    <_>
      <rect>
        27 17 2 1</rect></_>
    <_>
      <rect>
        27 19 3 1</rect></_>
    <_>
      <rect>
        27 20 3 1</rect></_>
    <_>
      <rect>
        28 16 3 2</rect></_>
    <_>
      <rect>
        29 16 2 1</rect></_>
    <_>
      <rect>
        29 18 3 1</rect></_>
    <_>
      <rect>
        30 18 1 1</rect></_>
    <_>
      <rect>
        30 18 2 1</rect></_>
    <_>
      <rect>
        30 19 1 1</rect></_>
    <_>
      <rect>
        31 12 3 5</rect></_>
    <_>
      <rect>
        31 19 1 1</rect></_></features></cascade>
</opencv_storage>
